Language model created by QuickLM on Sat Mar 30 07:18:28 EDT 2024
Copyright (c) 1996-2010 Carnegie Mellon University and Alexander I. Rudnicky

The model is in standard ARPA format, designed by Doug Paul while he was at MITRE.

The code that was used to produce this language model is available in Open Source.
Please visit http://www.speech.cs.cmu.edu/tools/ for more information

The (fixed) discount mass is 0.5. The backoffs are computed using the ratio method.
This model based on a corpus of 27 sentences and 48 words

\data\
ngram 1=48
ngram 2=79
ngram 3=67

\1-grams:
-0.9560 </s> -0.3010
-0.9560 <s> -0.2461
-1.9103 ABOUT -0.2884
-2.3874 ALL -0.2992
-2.3874 AM -0.2992
-2.3874 APPLICATIONS -0.2501
-2.0864 ARE -0.2939
-1.9103 BYE -0.2275
-2.3874 CHROME -0.2501
-2.0864 CLOSE -0.2975
-2.3874 FINE -0.2992
-2.3874 GOOD -0.2992
-2.3874 GOODBYE -0.2866
-2.3874 HELLO -0.2866
-2.3874 HEY -0.2866
-2.3874 HOW -0.2975
-2.3874 I -0.2501
-2.0864 I'M -0.2975
-2.3874 IT -0.2866
-1.4843 JARVIS -0.2501
-2.0864 ME -0.2461
-2.3874 MUCH -0.2866
-2.3874 NO -0.2501
-2.0864 NOT -0.2481
-2.3874 NOW -0.2501
-2.3874 OK -0.2501
-2.0864 OPEN -0.2975
-2.3874 PRIYANSHU -0.2501
-2.3874 SAY -0.2975
-2.3874 SHUTDOWN -0.2992
-2.3874 SO -0.2992
-2.0864 SOMETHING -0.2957
-2.3874 SURE -0.2501
-2.3874 SYSTEM -0.2501
-2.3874 TELL -0.2975
-2.3874 THANK -0.2939
-2.3874 THANKS -0.2866
-2.3874 UP -0.2866
-2.3874 WAKE -0.2992
-2.3874 WHAT -0.2957
-2.3874 WHATSAPP -0.2501
-2.0864 WHO -0.2957
-2.3874 WHY -0.2975
-2.3874 YEAH -0.2501
-2.3874 YES -0.2501
-1.7853 YOU -0.2481
-2.3874 YOUR -0.2992
-2.3874 YOURSELF -0.2501

\2-grams:
-1.4314 <s> BYE -0.1249
-1.4314 <s> CLOSE 0.0000
-1.7324 <s> GOODBYE 0.0000
-1.7324 <s> HELLO 0.0000
-1.7324 <s> HEY 0.0000
-1.4314 <s> I'M 0.0000
-1.7324 <s> NO 0.0000
-1.7324 <s> NOT -0.1761
-1.7324 <s> OK 0.0000
-1.4314 <s> OPEN 0.0000
-1.7324 <s> PRIYANSHU 0.0000
-1.7324 <s> SAY 0.0000
-1.7324 <s> SHUTDOWN 0.0000
-1.7324 <s> SURE 0.0000
-1.7324 <s> TELL 0.0000
-1.7324 <s> THANK 0.0000
-1.7324 <s> THANKS 0.0000
-1.7324 <s> WAKE 0.0000
-1.4314 <s> WHO 0.0000
-1.7324 <s> WHY 0.0000
-1.7324 <s> YEAH 0.0000
-1.7324 <s> YES 0.0000
-0.7782 ABOUT ME -0.1761
-0.7782 ABOUT YOU -0.0969
-0.7782 ABOUT YOURSELF 0.0000
-0.3010 ALL APPLICATIONS 0.0000
-0.3010 AM I 0.0000
-0.3010 APPLICATIONS </s> -0.3010
-0.3010 ARE YOU -0.0969
-0.7782 BYE </s> -0.3010
-0.7782 BYE BYE -0.2218
-0.7782 BYE JARVIS 0.0000
-0.3010 CHROME </s> -0.3010
-0.6021 CLOSE ALL 0.0000
-0.6021 CLOSE IT 0.0000
-0.3010 FINE WHAT 0.0000
-0.3010 GOOD HOW 0.0000
-0.3010 GOODBYE JARVIS 0.0000
-0.3010 HELLO JARVIS 0.0000
-0.3010 HEY JARVIS 0.0000
-0.3010 HOW ARE 0.0000
-0.3010 I </s> -0.3010
-0.6021 I'M FINE 0.0000
-0.6021 I'M GOOD 0.0000
-0.3010 IT JARVIS 0.0000
-0.3010 JARVIS </s> -0.3010
-0.6021 ME </s> -0.3010
-0.6021 ME SOMETHING 0.0000
-0.3010 MUCH JARVIS 0.0000
-0.3010 NO </s> -0.3010
-0.6021 NOT </s> -0.3010
-0.6021 NOT NOW 0.0000
-0.3010 NOW </s> -0.3010
-0.3010 OK </s> -0.3010
-0.6021 OPEN CHROME 0.0000
-0.6021 OPEN WHATSAPP 0.0000
-0.3010 PRIYANSHU </s> -0.3010
-0.3010 SAY SOMETHING 0.0000
-0.3010 SHUTDOWN YOUR 0.0000
-0.3010 SO MUCH 0.0000
-0.3010 SOMETHING ABOUT -0.1249
-0.3010 SURE </s> -0.3010
-0.3010 SYSTEM </s> -0.3010
-0.3010 TELL ME -0.1761
-0.3010 THANK YOU -0.2430
-0.3010 THANKS JARVIS 0.0000
-0.3010 UP JARVIS 0.0000
-0.3010 WAKE UP 0.0000
-0.3010 WHAT ABOUT -0.2218
-0.3010 WHATSAPP </s> -0.3010
-0.6021 WHO AM 0.0000
-0.6021 WHO ARE 0.0000
-0.3010 WHY NOT -0.1761
-0.3010 YEAH </s> -0.3010
-0.3010 YES </s> -0.3010
-0.4260 YOU </s> -0.3010
-0.9031 YOU SO 0.0000
-0.3010 YOUR SYSTEM 0.0000
-0.3010 YOURSELF </s> -0.3010

\3-grams:
-0.6021 <s> BYE BYE
-0.6021 <s> BYE JARVIS
-0.6021 <s> CLOSE ALL
-0.6021 <s> CLOSE IT
-0.3010 <s> GOODBYE JARVIS
-0.3010 <s> HELLO JARVIS
-0.3010 <s> HEY JARVIS
-0.6021 <s> I'M FINE
-0.6021 <s> I'M GOOD
-0.3010 <s> NO </s>
-0.3010 <s> NOT NOW
-0.3010 <s> OK </s>
-0.6021 <s> OPEN CHROME
-0.6021 <s> OPEN WHATSAPP
-0.3010 <s> PRIYANSHU </s>
-0.3010 <s> SAY SOMETHING
-0.3010 <s> SHUTDOWN YOUR
-0.3010 <s> SURE </s>
-0.3010 <s> TELL ME
-0.3010 <s> THANK YOU
-0.3010 <s> THANKS JARVIS
-0.3010 <s> WAKE UP
-0.6021 <s> WHO AM
-0.6021 <s> WHO ARE
-0.3010 <s> WHY NOT
-0.3010 <s> YEAH </s>
-0.3010 <s> YES </s>
-0.3010 ABOUT ME </s>
-0.3010 ABOUT YOU </s>
-0.3010 ABOUT YOURSELF </s>
-0.3010 ALL APPLICATIONS </s>
-0.3010 AM I </s>
-0.3010 ARE YOU </s>
-0.3010 BYE BYE </s>
-0.3010 BYE JARVIS </s>
-0.3010 CLOSE ALL APPLICATIONS
-0.3010 CLOSE IT JARVIS
-0.3010 FINE WHAT ABOUT
-0.3010 GOOD HOW ARE
-0.3010 GOODBYE JARVIS </s>
-0.3010 HELLO JARVIS </s>
-0.3010 HEY JARVIS </s>
-0.3010 HOW ARE YOU
-0.3010 I'M FINE WHAT
-0.3010 I'M GOOD HOW
-0.3010 IT JARVIS </s>
-0.3010 ME SOMETHING ABOUT
-0.3010 MUCH JARVIS </s>
-0.3010 NOT NOW </s>
-0.3010 OPEN CHROME </s>
-0.3010 OPEN WHATSAPP </s>
-0.3010 SAY SOMETHING ABOUT
-0.3010 SHUTDOWN YOUR SYSTEM
-0.3010 SO MUCH JARVIS
-0.6021 SOMETHING ABOUT ME
-0.6021 SOMETHING ABOUT YOURSELF
-0.3010 TELL ME SOMETHING
-0.3010 THANK YOU SO
-0.3010 THANKS JARVIS </s>
-0.3010 UP JARVIS </s>
-0.3010 WAKE UP JARVIS
-0.3010 WHAT ABOUT YOU
-0.3010 WHO AM I
-0.3010 WHO ARE YOU
-0.3010 WHY NOT </s>
-0.3010 YOU SO MUCH
-0.3010 YOUR SYSTEM </s>

\end\